<?xml version="1.0"?>
<opencv_storage>
<!-- Automatically converted from haar_front, window size = 24x24 -->
<haar_front type_id="opencv-haar-classifier">
  <size>
    24 24</size>
  <stages>
    <_>
      <!-- stage 0 -->
      <trees>
        <_>
          <!-- tree 0 -->
          <_>
            <!-- root node -->
            <feature>
              <rects>
                <_>
                  6 0 12 18 -1.</_>
                <_>
                  6 6 12 6 3.</_></rects>
              <tilted>0</tilted></feature>
            <threshold>-1.1247579753398895e-001</threshold>
            <left_val>6.6869497299194336e-001</left_val>
            <right_val>-8.1453442573547363e-001</right_val></_></_>
        <_>
          <!-- tree 1 -->
          <_>
            <!-- root node -->
            <feature>
              <rects>
                <_>
                  4 13 17 10 -1.</_>
                <_>
                  4 18 17 5 2.</_></rects>
              <tilted>0</tilted></feature>
            <threshold>-6.7946240305900574e-002</threshold>
            <left_val>5.8337718248367310e-001</left_val>
            <right_val>-8.7013691663742065e-001</right_val></_></_>
        <_>
          <!-- tree 2 -->
          <_>
            <!-- root node -->
            <feature>
              <rects>
                <_>
                  0 23 24 1 -1.</_>
                <_>
                  8 23 8 1 3.</_></rects>
              <tilted>0</tilted></feature>
            <threshold>-8.5567785426974297e-003</threshold>
            <left_val>5.3820288181304932e-001</left_val>
            <right_val>-7.9785460233688354e-001</right_val></_></_>
        <_>
          <!-- tree 3 -->
          <_>
            <!-- root node -->
            <feature>
              <rects>
                <_>
                  16 8 8 4 -1.</_>
                <_>
                  16 8 4 4 2.</_></rects>
              <tilted>0</tilted></feature>
            <threshold>1.1326310224831104e-002</threshold>
            <left_val>-1.8630850315093994e-001</left_val>
            <right_val>3.1881698966026306e-001</right_val></_></_>
        <_>
          <!-- tree 4 -->
          <_>
            <!-- root node -->
            <feature>
              <rects>
                <_>
                  0 8 8 4 -1.</_>
                <_>
                  4 8 4 4 2.</_></rects>
              <tilted>0</tilted></feature>
            <threshold>-1.0545739904046059e-002</threshold>
            <left_val>7.0323127508163452e-001</left_val>
            <right_val>-5.3031587600708008e-001</right_val></_></_>
        <_>
          <!-- tree 5 -->
          <_>
            <!-- root node -->
            <feature>
              <rects>
                <_>
                  10 15 10 9 -1.</_>
                <_>
                  10 15 5 9 2.</_></rects>
              <tilted>0</tilted></feature>
            <threshold>-6.2695719301700592e-002</threshold>
            <left_val>-9.8752921819686890e-001</left_val>
            <right_val>1.3251009583473206e-001</right_val></_></_>
        <_>
          <!-- tree 6 -->
          <_>
            <!-- root node -->
            <feature>
              <rects>
                <_>
                  0 23 6 1 -1.</_>
                <_>
                  3 23 3 1 2.</_></rects>
              <tilted>0</tilted></feature>
            <threshold>-9.4514072407037020e-004</threshold>
            <left_val>3.9965501427650452e-001</left_val>
            <right_val>-6.8537342548370361e-001</right_val></_></_></trees>
      <stage_threshold>-1.7933739423751831e+000</stage_threshold>
      <parent>-1</parent>
      <next>-1</next></_>
    <_>
      <!-- stage 1 -->
      <trees>
        <_>
          <!-- tree 0 -->
          <_>
            <!-- root node -->
            <feature>
              <rects>
                <_>
                  5 10 14 12 -1.</_>
                <_>
                  5 14 14 4 3.</_></rects>
              <tilted>0</tilted></feature>
            <threshold>9.1886490583419800e-002</threshold>
            <left_val>-6.7166888713836670e-001</left_val>
            <right_val>6.4526951313018799e-001</right_val></_></_>
        <_>
          <!-- tree 1 -->
          <_>
            <!-- root node -->
            <feature>
              <rects>
                <_>
                  8 0 10 10 -1.</_>
                <_>
                  8 5 10 5 2.</_></rects>
              <tilted>0</tilted></feature>
            <threshold>-8.1069856882095337e-002</threshold>
            <left_val>5.6559002399444580e-001</left_val>
            <right_val>-6.0221642255783081e-001</right_val></_></_>
        <_>
          <!-- tree 2 -->
          <_>
            <!-- root node -->
            <feature>
              <rects>
                <_>
                  0 23 24 1 -1.</_>
                <_>
                  8 23 8 1 3.</_></rects>
              <tilted>0</tilted></feature>
            <threshold>-1.1975959874689579e-002</threshold>
            <left_val>4.5498201251029968e-001</left_val>
            <right_val>-6.5942341089248657e-001</right_val></_></_>
        <_>
          <!-- tree 3 -->
          <_>
            <!-- root node -->
            <feature>
              <rects>
                <_>
                  11 18 8 6 -1.</_>
                <_>
                  11 18 4 6 2.</_></rects>
              <tilted>0</tilted></feature>
            <threshold>-1.2549499981105328e-002</threshold>
            <left_val>-5.3800100088119507e-001</left_val>
            <right_val>9.4228401780128479e-002</right_val></_></_>
        <_>
          <!-- tree 4 -->
          <_>
            <!-- root node -->
            <feature>
              <rects>
                <_>
                  3 0 16 24 -1.</_>
                <_>
                  11 0 8 24 2.</_></rects>
              <tilted>0</tilted></feature>
            <threshold>-3.9861589670181274e-002</threshold>
            <left_val>-9.4413620233535767e-001</left_val>
            <right_val>3.0507528781890869e-001</right_val></_></_>
        <_>
          <!-- tree 5 -->
          <_>
            <!-- root node -->
            <feature>
              <rects>
                <_>
                  22 23 2 1 -1.</_>
                <_>
                  22 23 1 1 2.</_></rects>
              <tilted>0</tilted></feature>
            <threshold>-2.5044109861482866e-005</threshold>
            <left_val>2.2725169360637665e-001</left_val>
            <right_val>-2.9413521289825439e-001</right_val></_></_>
        <_>
          <!-- tree 6 -->
          <_>
            <!-- root node -->
            <feature>
              <rects>
                <_>
                  0 23 2 1 -1.</_>
                <_>
                  1 23 1 1 2.</_></rects>
              <tilted>0</tilted></feature>
            <threshold>-3.0570230592275038e-005</threshold>
            <left_val>3.7193319201469421e-001</left_val>
            <right_val>-6.4754992723464966e-001</right_val></_></_></trees>
      <stage_threshold>-1.4562070369720459e+000</stage_threshold>
      <parent>0</parent>
      <next>-1</next></_>
    <_>
      <!-- stage 2 -->
      <trees>
        <_>
          <!-- tree 0 -->
          <_>
            <!-- root node -->
            <feature>
              <rects>
                <_>
                  5 0 8 12 -1.</_>
                <_>
                  5 6 8 6 2.</_></rects>
              <tilted>0</tilted></feature>
            <threshold>-6.9209583103656769e-002</threshold>
            <left_val>5.6419461965560913e-001</left_val>
            <right_val>-7.3786842823028564e-001</right_val></_></_>
        <_>
          <!-- tree 1 -->
          <_>
            <!-- root node -->
            <feature>
              <rects>
                <_>
                  10 13 14 10 -1.</_>
                <_>
                  10 18 14 5 2.</_></rects>
              <tilted>0</tilted></feature>
            <threshold>-5.5405151098966599e-002</threshold>
            <left_val>4.1144460439682007e-001</left_val>
            <right_val>-7.5245302915573120e-001</right_val></_></_>
        <_>
          <!-- tree 2 -->
          <_>
            <!-- root node -->
            <feature>
              <rects>
                <_>
                  0 13 9 10 -1.</_>
                <_>
                  0 18 9 5 2.</_></rects>
              <tilted>0</tilted></feature>
            <threshold>-2.5286629796028137e-002</threshold>
            <left_val>3.0289968848228455e-001</left_val>
            <right_val>-7.8296250104904175e-001</right_val></_></_>
        <_>
          <!-- tree 3 -->
          <_>
            <!-- root node -->
            <feature>
              <rects>
                <_>
                  6 0 13 9 -1.</_>
                <_>
                  6 3 13 3 3.</_></rects>
              <tilted>0</tilted></feature>
            <threshold>-9.0975306928157806e-002</threshold>
            <left_val>7.7980548143386841e-001</left_val>
            <right_val>-3.1011769175529480e-001</right_val></_></_>
        <_>
          <!-- tree 4 -->
          <_>
            <!-- root node -->
            <feature>
              <rects>
                <_>
                  7 0 10 4 -1.</_>
                <_>
                  7 2 10 2 2.</_></rects>
              <tilted>0</tilted></feature>
            <threshold>3.0733820050954819e-002</threshold>
            <left_val>-2.5973591208457947e-001</left_val>
            <right_val>8.2920122146606445e-001</right_val></_></_>
        <_>
          <!-- tree 5 -->
          <_>
            <!-- root node -->
            <feature>
              <rects>
                <_>
                  22 4 2 16 -1.</_>
                <_>
                  22 12 2 8 2.</_></rects>
              <tilted>0</tilted></feature>
            <threshold>7.4406820349395275e-003</threshold>
            <left_val>2.5310361385345459e-001</left_val>
            <right_val>-4.1580718755722046e-001</right_val></_></_>
        <_>
          <!-- tree 6 -->
          <_>
            <!-- root node -->
            <feature>
              <rects>
                <_>
                  0 4 2 16 -1.</_>
                <_>
                  0 12 2 8 2.</_></rects>
              <tilted>0</tilted></feature>
            <threshold>4.1242809966206551e-003</threshold>
            <left_val>2.4276010692119598e-001</left_val>
            <right_val>-8.3902448415756226e-001</right_val></_></_>
        <_>
          <!-- tree 7 -->
          <_>
            <!-- root node -->
            <feature>
              <rects>
                <_>
                  18 23 6 1 -1.</_>
                <_>
                  18 23 3 1 2.</_></rects>
              <tilted>0</tilted></feature>
            <threshold>-8.1400451017543674e-004</threshold>
            <left_val>3.0468970537185669e-001</left_val>
            <right_val>-5.7348358631134033e-001</right_val></_></_>
        <_>
          <!-- tree 8 -->
          <_>
            <!-- root node -->
            <feature>
              <rects>
                <_>
                  0 23 6 1 -1.</_>
                <_>
                  3 23 3 1 2.</_></rects>
              <tilted>0</tilted></feature>
            <threshold>-1.2950830569025129e-004</threshold>
            <left_val>2.5184288620948792e-001</left_val>
            <right_val>-8.2116812467575073e-001</right_val></_></_>
        <_>
          <!-- tree 9 -->
          <_>
            <!-- root node -->
            <feature>
              <rects>
                <_>
                  7 9 10 8 -1.</_>
                <_>
                  7 13 10 4 2.</_></rects>
              <tilted>0</tilted></feature>
            <threshold>2.1593200042843819e-002</threshold>
            <left_val>-5.7502442598342896e-001</left_val>
            <right_val>3.4056028723716736e-001</right_val></_></_></trees>
      <stage_threshold>-1.9114029407501221e+000</stage_threshold>
      <parent>1</parent>
      <next>-1</next></_>
    <_>
      <!-- stage 3 -->
      <trees>
        <_>
          <!-- tree 0 -->
          <_>
            <!-- root node -->
            <feature>
              <rects>
                <_>
                  0 6 24 6 -1.</_>
                <_>
                  8 6 8 6 3.</_></rects>
              <tilted>0</tilted></feature>
            <threshold>-7.8774869441986084e-002</threshold>
            <left_val>5.6624698638916016e-001</left_val>
            <right_val>-5.4495787620544434e-001</right_val></_></_>
        <_>
          <!-- tree 1 -->
          <_>
            <!-- root node -->
            <feature>
              <rects>
                <_>
                  11 18 12 6 -1.</_>
                <_>
                  17 18 6 3 2.</_>
                <_>
                  11 21 6 3 2.</_></rects>
              <tilted>0</tilted></feature>
            <threshold>-8.1115141510963440e-003</threshold>
            <left_val>2.9650229215621948e-001</left_val>
            <right_val>-3.8055160641670227e-001</right_val></_></_>
        <_>
          <!-- tree 2 -->
          <_>
            <!-- root node -->
            <feature>
              <rects>
                <_>
                  0 3 24 1 -1.</_>
                <_>
                  8 3 8 1 3.</_></rects>
              <tilted>0</tilted></feature>
            <threshold>2.4484170600771904e-002</threshold>
            <left_val>-3.0370169878005981e-001</left_val>
            <right_val>6.5328049659729004e-001</right_val></_></_>
        <_>
          <!-- tree 3 -->
          <_>
            <!-- root node -->
            <feature>
              <rects>
                <_>
                  6 0 14 6 -1.</_>
                <_>
                  6 3 14 3 2.</_></rects>
              <tilted>0</tilted></feature>
            <threshold>-1.0716100037097931e-001</threshold>
            <left_val>7.7023547887802124e-001</left_val>
            <right_val>-2.9018259048461914e-001</right_val></_></_>
        <_>
          <!-- tree 4 -->
          <_>
            <!-- root node -->
            <feature>
              <rects>
                <_>
                  1 13 13 10 -1.</_>
                <_>
                  1 18 13 5 2.</_></rects>
              <tilted>0</tilted></feature>
            <threshold>-4.7284040600061417e-002</threshold>
            <left_val>2.8587809205055237e-001</left_val>
            <right_val>-7.4130821228027344e-001</right_val></_></_>
        <_>
          <!-- tree 5 -->
          <_>
            <!-- root node -->
            <feature>
              <rects>
                <_>
                  11 23 6 1 -1.</_>
                <_>
                  13 23 2 1 3.</_></rects>
              <tilted>0</tilted></feature>
            <threshold>-1.3173189945518970e-003</threshold>
            <left_val>-7.4389147758483887e-001</left_val>
            <right_val>1.5630850195884705e-001</right_val></_></_>
        <_>
          <!-- tree 6 -->
          <_>
            <!-- root node -->
            <feature>
              <rects>
                <_>
                  8 23 6 1 -1.</_>
                <_>
                  10 23 2 1 3.</_></rects>
              <tilted>0</tilted></feature>
            <threshold>-9.3392969574779272e-004</threshold>
            <left_val>-8.6366802453994751e-001</left_val>
            <right_val>1.9634510576725006e-001</right_val></_></_>
        <_>
          <!-- tree 7 -->
          <_>
            <!-- root node -->
            <feature>
              <rects>
                <_>
                  7 0 12 9 -1.</_>
                <_>
                  7 3 12 3 3.</_></rects>
              <tilted>0</tilted></feature>
            <threshold>9.1165520250797272e-002</threshold>
            <left_val>-2.8576889634132385e-001</left_val>
            <right_val>6.3919907808303833e-001</right_val></_></_>
        <_>
          <!-- tree 8 -->
          <_>
            <!-- root node -->
            <feature>
              <rects>
                <_>
                  0 10 4 12 -1.</_>
                <_>
                  2 10 2 12 2.</_></rects>
              <tilted>0</tilted></feature>
            <threshold>-1.0908010415732861e-002</threshold>
            <left_val>5.3127110004425049e-001</left_val>
            <right_val>-3.9558568596839905e-001</right_val></_></_>
        <_>
          <!-- tree 9 -->
          <_>
            <!-- root node -->
            <feature>
              <rects>
                <_>
                  9 2 8 4 -1.</_>
                <_>
                  9 2 4 4 2.</_></rects>
              <tilted>0</tilted></feature>
            <threshold>4.8142122104763985e-003</threshold>
            <left_val>1.7097219824790955e-001</left_val>
            <right_val>-4.4627198576927185e-001</right_val></_></_>
        <_>
          <!-- tree 10 -->
          <_>
            <!-- root node -->
            <feature>
              <rects>
                <_>
                  7 2 8 4 -1.</_>
                <_>
                  11 2 4 4 2.</_></rects>
              <tilted>0</tilted></feature>
            <threshold>7.5194849632680416e-003</threshold>
            <left_val>2.2883869707584381e-001</left_val>
            <right_val>-9.1729801893234253e-001</right_val></_></_>
        <_>
          <!-- tree 11 -->
          <_>
            <!-- root node -->
            <feature>
              <rects>
                <_>
                  0 2 24 1 -1.</_>
                <_>
                  8 2 8 1 3.</_></rects>
              <tilted>0</tilted></feature>
            <threshold>2.5343919172883034e-002</threshold>
            <left_val>-3.1371429562568665e-001</left_val>
            <right_val>5.9440797567367554e-001</right_val></_></_>
        <_>
          <!-- tree 12 -->
          <_>
            <!-- root node -->
            <feature>
              <rects>
                <_>
                  2 7 16 11 -1.</_>
                <_>
                  10 7 8 11 2.</_></rects>
              <tilted>0</tilted></feature>
            <threshold>-2.4019779637455940e-002</threshold>
            <left_val>-8.3263468742370605e-001</left_val>
            <right_val>2.3071050643920898e-001</right_val></_></_>
        <_>
          <!-- tree 13 -->
          <_>
            <!-- root node -->
            <feature>
              <rects>
                <_>
                  0 23 24 1 -1.</_>
                <_>
                  8 23 8 1 3.</_></rects>
              <tilted>0</tilted></feature>
            <threshold>-1.1983869597315788e-002</threshold>
            <left_val>2.9319721460342407e-001</left_val>
            <right_val>-5.4235678911209106e-001</right_val></_></_></trees>
      <stage_threshold>-1.7037479877471924e+000</stage_threshold>
      <parent>2</parent>
      <next>-1</next></_>
    <_>
      <!-- stage 4 -->
      <trees>
        <_>
          <!-- tree 0 -->
          <_>
            <!-- root node -->
            <feature>
              <rects>
                <_>
                  1 0 13 18 -1.</_>
                <_>
                  1 6 13 6 3.</_></rects>
              <tilted>0</tilted></feature>
            <threshold>-1.0168939828872681e-001</threshold>
            <left_val>3.5875138640403748e-001</left_val>
            <right_val>-7.3538011312484741e-001</right_val></_></_>
        <_>
          <!-- tree 1 -->
          <_>
            <!-- root node -->
            <feature>
              <rects>
                <_>
                  17 9 5 14 -1.</_>
                <_>
                  17 16 5 7 2.</_></rects>
              <tilted>0</tilted></feature>
            <threshold>-2.7783410623669624e-002</threshold>
            <left_val>2.0734989643096924e-001</left_val>
            <right_val>-4.9031698703765869e-001</right_val></_></_>
        <_>
          <!-- tree 2 -->
          <_>
            <!-- root node -->
            <feature>
              <rects>
                <_>
                  0 6 18 14 -1.</_>
                <_>
                  0 6 9 7 2.</_>
                <_>
                  9 13 9 7 2.</_></rects>
              <tilted>0</tilted></feature>
            <threshold>2.5776030495762825e-002</threshold>
            <left_val>-5.4914867877960205e-001</left_val>
            <right_val>3.9532628655433655e-001</right_val></_></_>
        <_>
          <!-- tree 3 -->
          <_>
            <!-- root node -->
            <feature>
              <rects>
                <_>
                  6 0 12 9 -1.</_>
                <_>
                  6 3 12 3 3.</_></rects>
              <tilted>0</tilted></feature>
            <threshold>-1.0335879772901535e-001</threshold>
            <left_val>6.4853692054748535e-001</left_val>
            <right_val>-3.0734029412269592e-001</right_val></_></_>
        <_>
          <!-- tree 4 -->
          <_>
            <!-- root node -->
            <feature>
              <rects>
                <_>
                  0 23 8 1 -1.</_>
                <_>
                  4 23 4 1 2.</_></rects>
              <tilted>0</tilted></feature>
            <threshold>-1.2615970335900784e-003</threshold>
            <left_val>3.1351360678672791e-001</left_val>
            <right_val>-6.5147441625595093e-001</right_val></_></_>
        <_>
          <!-- tree 5 -->
          <_>
            <!-- root node -->
            <feature>
              <rects>
                <_>
                  5 0 16 4 -1.</_>
                <_>
                  5 2 16 2 2.</_></rects>
              <tilted>0</tilted></feature>
            <threshold>2.2037470713257790e-002</threshold>
            <left_val>-3.1977850198745728e-001</left_val>
            <right_val>5.2814048528671265e-001</right_val></_></_>
        <_>
          <!-- tree 6 -->
          <_>
            <!-- root node -->
            <feature>
              <rects>
                <_>
                  0 10 24 14 -1.</_>
                <_>
                  0 10 12 7 2.</_>
                <_>
                  12 17 12 7 2.</_></rects>
              <tilted>0</tilted></feature>
            <threshold>-5.2692089229822159e-002</threshold>
            <left_val>-7.9030948877334595e-001</left_val>
            <right_val>2.1215939521789551e-001</right_val></_></_>
        <_>
          <!-- tree 7 -->
          <_>
            <!-- root node -->
            <feature>
              <rects>
                <_>
                  6 23 16 1 -1.</_>
                <_>
                  6 23 8 1 2.</_></rects>
              <tilted>0</tilted></feature>
            <threshold>-2.4880489334464073e-002</threshold>
            <left_val>-9.8120629787445068e-001</left_val>
            <right_val>3.6384701728820801e-002</right_val></_></_>
        <_>
          <!-- tree 8 -->
          <_>
            <!-- root node -->
            <feature>
              <rects>
                <_>
                  11 22 2 2 -1.</_>
                <_>
                  12 22 1 2 2.</_></rects>
              <tilted>0</tilted></feature>
            <threshold>-2.6286361389793456e-004</threshold>
            <left_val>-7.6474672555923462e-001</left_val>
            <right_val>1.7681190371513367e-001</right_val></_></_>
        <_>
          <!-- tree 9 -->
          <_>
            <!-- root node -->
            <feature>
              <rects>
                <_>
                  10 21 4 3 -1.</_>
                <_>
                  10 21 2 3 2.</_></rects>
              <tilted>0</tilted></feature>
            <threshold>-2.7023688890039921e-003</threshold>
            <left_val>-9.1087257862091064e-001</left_val>
            <right_val>1.3445310294628143e-001</right_val></_></_>
        <_>
          <!-- tree 10 -->
          <_>
            <!-- root node -->
            <feature>
              <rects>
                <_>
                  0 8 8 4 -1.</_>
                <_>
                  4 8 4 4 2.</_></rects>
              <tilted>0</tilted></feature>
            <threshold>-1.0752669535577297e-002</threshold>
            <left_val>2.8157570958137512e-001</left_val>
            <right_val>-4.4908830523490906e-001</right_val></_></_></trees>
      <stage_threshold>-1.3971320390701294e+000</stage_threshold>
      <parent>3</parent>
      <next>-1</next></_>
    <_>
      <!-- stage 5 -->
      <trees>
        <_>
          <!-- tree 0 -->
          <_>
            <!-- root node -->
            <feature>
              <rects>
                <_>
                  3 3 8 1 -1.</_>
                <_>
                  7 3 4 1 2.</_></rects>
              <tilted>0</tilted></feature>
            <threshold>-1.0938639752566814e-002</threshold>
            <left_val>8.5091727972030640e-001</left_val>
            <right_val>-2.6043599843978882e-001</right_val></_></_>
        <_>
          <!-- tree 1 -->
          <_>
            <!-- root node -->
            <feature>
              <rects>
                <_>
                  11 0 2 12 -1.</_>
                <_>
                  11 6 2 6 2.</_></rects>
              <tilted>0</tilted></feature>
            <threshold>-1.3438880443572998e-002</threshold>
            <left_val>3.1130328774452209e-001</left_val>
            <right_val>-6.6761898994445801e-001</right_val></_></_>
        <_>
          <!-- tree 2 -->
          <_>
            <!-- root node -->
            <feature>
              <rects>
                <_>
                  0 23 24 1 -1.</_>
                <_>
                  8 23 8 1 3.</_></rects>
              <tilted>0</tilted></feature>
            <threshold>-4.9377558752894402e-003</threshold>
            <left_val>2.0253619551658630e-001</left_val>
            <right_val>-7.8298032283782959e-001</right_val></_></_>
        <_>
          <!-- tree 3 -->
          <_>
            <!-- root node -->
            <feature>
              <rects>
                <_>
                  19 6 5 18 -1.</_>
                <_>
                  19 15 5 9 2.</_></rects>
              <tilted>0</tilted></feature>
            <threshold>-1.3103179633617401e-002</threshold>
            <left_val>1.5037299692630768e-001</left_val>
            <right_val>-3.5455238819122314e-001</right_val></_></_>
        <_>
          <!-- tree 4 -->
          <_>
            <!-- root node -->
            <feature>
              <rects>
                <_>
                  4 22 16 2 -1.</_>
                <_>
                  4 23 16 1 2.</_></rects>
              <tilted>0</tilted></feature>
            <threshold>4.2644250206649303e-003</threshold>
            <left_val>-3.0173829197883606e-001</left_val>
            <right_val>4.8524180054664612e-001</right_val></_></_>
        <_>
          <!-- tree 5 -->
          <_>
            <!-- root node -->
            <feature>
              <rects>
                <_>
                  13 16 10 5 -1.</_>
                <_>
                  13 16 5 5 2.</_></rects>
              <tilted>0</tilted></feature>
            <threshold>2.9408739879727364e-002</threshold>
            <left_val>-4.3623998761177063e-002</left_val>
            <right_val>3.0662629008293152e-001</right_val></_></_>
        <_>
          <!-- tree 6 -->
          <_>
            <!-- root node -->
            <feature>
              <rects>
                <_>
                  1 16 10 5 -1.</_>
                <_>
                  6 16 5 5 2.</_></rects>
              <tilted>0</tilted></feature>
            <threshold>1.6922410577535629e-002</threshold>
            <left_val>-3.4131279587745667e-001</left_val>
            <right_val>4.6916320919990540e-001</right_val></_></_>
        <_>
          <!-- tree 7 -->
          <_>
            <!-- root node -->
            <feature>
              <rects>
                <_>
                  15 23 2 1 -1.</_>
                <_>
                  15 23 1 1 2.</_></rects>
              <tilted>0</tilted></feature>
            <threshold>-4.3989220284856856e-004</threshold>
            <left_val>-7.2765988111495972e-001</left_val>
            <right_val>1.5939159691333771e-001</right_val></_></_>
        <_>
          <!-- tree 8 -->
          <_>
            <!-- root node -->
            <feature>
              <rects>
                <_>
                  0 22 2 1 -1.</_>
                <_>
                  1 22 1 1 2.</_></rects>
              <tilted>0</tilted></feature>
            <threshold>-3.0378669180208817e-005</threshold>
            <left_val>2.5992700457572937e-001</left_val>
            <right_val>-6.0760092735290527e-001</right_val></_></_>
        <_>
          <!-- tree 9 -->
          <_>
            <!-- root node -->
            <feature>
              <rects>
                <_>
                  15 23 2 1 -1.</_>
                <_>
                  15 23 1 1 2.</_></rects>
              <tilted>0</tilted></feature>
            <threshold>2.0568039326462895e-004</threshold>
            <left_val>1.1314129829406738e-001</left_val>
            <right_val>-6.3720041513442993e-001</right_val></_></_>
        <_>
          <!-- tree 10 -->
          <_>
            <!-- root node -->
            <feature>
              <rects>
                <_>
                  9 1 6 3 -1.</_>
                <_>
                  12 1 3 3 2.</_></rects>
              <tilted>0</tilted></feature>
            <threshold>-1.6825930215418339e-003</threshold>
            <left_val>-6.8690091371536255e-001</left_val>
            <right_val>2.0301449298858643e-001</right_val></_></_>
        <_>
          <!-- tree 11 -->
          <_>
            <!-- root node -->
            <feature>
              <rects>
                <_>
                  8 0 15 5 -1.</_>
                <_>
                  13 0 5 5 3.</_></rects>
              <tilted>0</tilted></feature>
            <threshold>1.6063749790191650e-002</threshold>
            <left_val>-2.6920789480209351e-001</left_val>
            <right_val>2.1782079339027405e-001</right_val></_></_>
        <_>
          <!-- tree 12 -->
          <_>
            <!-- root node -->
            <feature>
              <rects>
                <_>
                  9 1 6 6 -1.</_>
                <_>
                  12 1 3 6 2.</_></rects>
              <tilted>0</tilted></feature>
            <threshold>8.3943717181682587e-003</threshold>
            <left_val>2.1481209993362427e-001</left_val>
            <right_val>-9.2656487226486206e-001</right_val></_></_>
        <_>
          <!-- tree 13 -->
          <_>
            <!-- root node -->
            <feature>
              <rects>
                <_>
                  16 8 8 3 -1.</_>
                <_>
                  16 8 4 3 2.</_></rects>
              <tilted>0</tilted></feature>
            <threshold>-1.0244170203804970e-002</threshold>
            <left_val>2.5000289082527161e-001</left_val>
            <right_val>-2.3112420737743378e-001</right_val></_></_>
        <_>
          <!-- tree 14 -->
          <_>
            <!-- root node -->
            <feature>
              <rects>
                <_>
                  7 23 2 1 -1.</_>
                <_>
                  8 23 1 1 2.</_></rects>
              <tilted>0</tilted></feature>
            <threshold>-3.2291360548697412e-004</threshold>
            <left_val>-8.8024318218231201e-001</left_val>
            <right_val>1.7279459536075592e-001</right_val></_></_>
        <_>
          <!-- tree 15 -->
          <_>
            <!-- root node -->
            <feature>
              <rects>
                <_>
                  7 0 14 3 -1.</_>
                <_>
                  7 1 14 1 3.</_></rects>
              <tilted>0</tilted></feature>
            <threshold>-1.2873480096459389e-002</threshold>
            <left_val>5.5023837089538574e-001</left_val>
            <right_val>-2.5874421000480652e-001</right_val></_></_></trees>
      <stage_threshold>-1.4077470302581787e+000</stage_threshold>
      <parent>4</parent>
      <next>-1</next></_>
    <_>
      <!-- stage 6 -->
      <trees>
        <_>
          <!-- tree 0 -->
          <_>
            <!-- root node -->
            <feature>
              <rects>
                <_>
                  0 3 24 1 -1.</_>
                <_>
                  8 3 8 1 3.</_></rects>
              <tilted>0</tilted></feature>
            <threshold>-3.3956591039896011e-002</threshold>
            <left_val>7.6651358604431152e-001</left_val>
            <right_val>-2.7661970257759094e-001</right_val></_></_>
        <_>
          <!-- tree 1 -->
          <_>
            <!-- root node -->
            <feature>
              <rects>
                <_>
                  12 7 12 15 -1.</_>
                <_>
                  12 12 12 5 3.</_></rects>
              <tilted>0</tilted></feature>
            <threshold>6.8600118160247803e-002</threshold>
            <left_val>-4.4531759619712830e-001</left_val>
            <right_val>3.1158930063247681e-001</right_val></_></_>
        <_>
          <!-- tree 2 -->
          <_>
            <!-- root node -->
            <feature>
              <rects>
                <_>
                  2 0 8 5 -1.</_>
                <_>
                  6 0 4 5 2.</_></rects>
              <tilted>0</tilted></feature>
            <threshold>1.0800310410559177e-002</threshold>
            <left_val>-3.5044729709625244e-001</left_val>
            <right_val>4.1945430636405945e-001</right_val></_></_>
        <_>
          <!-- tree 3 -->
          <_>
            <!-- root node -->
            <feature>
              <rects>
                <_>
                  14 8 10 4 -1.</_>
                <_>
                  14 8 5 4 2.</_></rects>
              <tilted>0</tilted></feature>
            <threshold>3.7172958254814148e-002</threshold>
            <left_val>2.3389149457216263e-002</left_val>
            <right_val>-9.9991607666015625e-001</right_val></_></_>
        <_>
          <!-- tree 4 -->
          <_>
            <!-- root node -->
            <feature>
              <rects>
                <_>
                  0 8 10 4 -1.</_>
                <_>
                  5 8 5 4 2.</_></rects>
              <tilted>0</tilted></feature>
            <threshold>-4.9539310857653618e-003</threshold>
            <left_val>2.6622131466865540e-001</left_val>
            <right_val>-6.1399209499359131e-001</right_val></_></_>
        <_>
          <!-- tree 5 -->
          <_>
            <!-- root node -->
            <feature>
              <rects>
                <_>
                  22 18 2 6 -1.</_>
                <_>
                  22 21 2 3 2.</_></rects>
              <tilted>0</tilted></feature>
            <threshold>-2.2995250765234232e-003</threshold>
            <left_val>-4.3140950798988342e-001</left_val>
            <right_val>1.5005519986152649e-001</right_val></_></_>
        <_>
          <!-- tree 6 -->
          <_>
            <!-- root node -->
            <feature>
              <rects>
                <_>
                  0 4 24 5 -1.</_>
                <_>
                  12 4 12 5 2.</_></rects>
              <tilted>0</tilted></feature>
            <threshold>-4.9438189715147018e-002</threshold>
            <left_val>-8.4356540441513062e-001</left_val>
            <right_val>2.0468029379844666e-001</right_val></_></_>
        <_>
          <!-- tree 7 -->
          <_>
            <!-- root node -->
            <feature>
              <rects>
                <_>
                  22 18 2 6 -1.</_>
                <_>
                  22 21 2 3 2.</_></rects>
              <tilted>0</tilted></feature>
            <threshold>1.1528319679200649e-002</threshold>
            <left_val>9.1857407242059708e-003</left_val>
            <right_val>-6.4771068096160889e-001</right_val></_></_>
        <_>
          <!-- tree 8 -->
          <_>
            <!-- root node -->
            <feature>
              <rects>
                <_>
                  0 18 2 6 -1.</_>
                <_>
                  0 21 2 3 2.</_></rects>
              <tilted>0</tilted></feature>
            <threshold>-1.9406969659030437e-003</threshold>
            <left_val>-7.5774472951889038e-001</left_val>
            <right_val>2.0676140487194061e-001</right_val></_></_>
        <_>
          <!-- tree 9 -->
          <_>
            <!-- root node -->
            <feature>
              <rects>
                <_>
                  15 15 7 8 -1.</_>
                <_>
                  15 19 7 4 2.</_></rects>
              <tilted>0</tilted></feature>
            <threshold>-8.7338536977767944e-003</threshold>
            <left_val>1.2662689387798309e-001</left_val>
            <right_val>-5.9509742259979248e-001</right_val></_></_>
        <_>
          <!-- tree 10 -->
          <_>
            <!-- root node -->
            <feature>
              <rects>
                <_>
                  3 12 17 3 -1.</_>
                <_>
                  3 13 17 1 3.</_></rects>
              <tilted>0</tilted></feature>
            <threshold>-1.6479479148983955e-002</threshold>
            <left_val>7.0693451166152954e-001</left_val>
            <right_val>-1.9338959455490112e-001</right_val></_></_>
        <_>
          <!-- tree 11 -->
          <_>
            <!-- root node -->
            <feature>
              <rects>
                <_>
                  18 6 6 18 -1.</_>
                <_>
                  18 15 6 9 2.</_></rects>
              <tilted>0</tilted></feature>
            <threshold>-1.4297670125961304e-001</threshold>
            <left_val>-6.9478720426559448e-001</left_val>
            <right_val>7.3541037738323212e-002</right_val></_></_>
        <_>
          <!-- tree 12 -->
          <_>
            <!-- root node -->
            <feature>
              <rects>
                <_>
                  0 6 6 18 -1.</_>
                <_>
                  0 15 6 9 2.</_></rects>
              <tilted>0</tilted></feature>
            <threshold>-7.0076831616461277e-003</threshold>
            <left_val>1.7778789997100830e-001</left_val>
            <right_val>-7.5192528963088989e-001</right_val></_></_></trees>
      <stage_threshold>-1.3307139873504639e+000</stage_threshold>
      <parent>5</parent>
      <next>-1</next></_>
    <_>
      <!-- stage 7 -->
      <trees>
        <_>
          <!-- tree 0 -->
          <_>
            <!-- root node -->
            <feature>
              <rects>
                <_>
                  2 3 10 6 -1.</_>
                <_>
                  2 3 5 3 2.</_>
                <_>
                  7 6 5 3 2.</_></rects>
              <tilted>0</tilted></feature>
            <threshold>2.6555359363555908e-002</threshold>
            <left_val>-2.6460319757461548e-001</left_val>
            <right_val>8.2486039400100708e-001</right_val></_></_>
        <_>
          <!-- tree 1 -->
          <_>
            <!-- root node -->
            <feature>
              <rects>
                <_>
                  14 16 9 6 -1.</_>
                <_>
                  14 19 9 3 2.</_></rects>
              <tilted>0</tilted></feature>
            <threshold>-5.5320621468126774e-003</threshold>
            <left_val>1.1133489757776260e-001</left_val>
            <right_val>-2.3036099970340729e-001</right_val></_></_>
        <_>
          <!-- tree 2 -->
          <_>
            <!-- root node -->
            <feature>
              <rects>
                <_>
                  1 23 15 1 -1.</_>
                <_>
                  6 23 5 1 3.</_></rects>
              <tilted>0</tilted></feature>
            <threshold>-7.2478031506761909e-004</threshold>
            <left_val>1.9048669934272766e-001</left_val>
            <right_val>-6.5585738420486450e-001</right_val></_></_>
        <_>
          <!-- tree 3 -->
          <_>
            <!-- root node -->
            <feature>
              <rects>
                <_>
                  11 0 13 18 -1.</_>
                <_>
                  11 6 13 6 3.</_></rects>
              <tilted>0</tilted></feature>
            <threshold>-8.1475436687469482e-002</threshold>
            <left_val>1.8461899459362030e-001</left_val>
            <right_val>-4.2396160960197449e-001</right_val></_></_>
        <_>
          <!-- tree 4 -->
          <_>
            <!-- root node -->
            <feature>
              <rects>
                <_>
                  0 6 24 4 -1.</_>
                <_>
                  12 6 12 4 2.</_></rects>
              <tilted>0</tilted></feature>
            <threshold>-3.3126670867204666e-002</threshold>
            <left_val>-8.3969330787658691e-001</left_val>
            <right_val>1.6492469608783722e-001</right_val></_></_>
        <_>
          <!-- tree 5 -->
          <_>
            <!-- root node -->
            <feature>
              <rects>
                <_>
                  3 2 21 3 -1.</_>
                <_>
                  10 2 7 3 3.</_></rects>
              <tilted>0</tilted></feature>
            <threshold>4.1928358376026154e-002</threshold>
            <left_val>-2.5546941161155701e-001</left_val>
            <right_val>4.2181739211082458e-001</right_val></_></_>
        <_>
          <!-- tree 6 -->
          <_>
            <!-- root node -->
            <feature>
              <rects>
                <_>
                  7 1 8 7 -1.</_>
                <_>
                  11 1 4 7 2.</_></rects>
              <tilted>0</tilted></feature>
            <threshold>1.3132619671523571e-002</threshold>
            <left_val>1.6551910340785980e-001</left_val>
            <right_val>-9.0746819972991943e-001</right_val></_></_>
        <_>
          <!-- tree 7 -->
          <_>
            <!-- root node -->
            <feature>
              <rects>
                <_>
                  20 10 4 11 -1.</_>
                <_>
                  20 10 2 11 2.</_></rects>
              <tilted>0</tilted></feature>
            <threshold>-1.7003150656819344e-002</threshold>
            <left_val>3.6532458662986755e-001</left_val>
            <right_val>-1.4718149602413177e-001</right_val></_></_>
        <_>
          <!-- tree 8 -->
          <_>
            <!-- root node -->
            <feature>
              <rects>
                <_>
                  0 12 9 8 -1.</_>
                <_>
                  3 12 3 8 3.</_></rects>
              <tilted>0</tilted></feature>
            <threshold>-2.2163420915603638e-002</threshold>
            <left_val>4.3849179148674011e-001</left_val>
            <right_val>-3.0665791034698486e-001</right_val></_></_>
        <_>
          <!-- tree 9 -->
          <_>
            <!-- root node -->
            <feature>
              <rects>
                <_>
                  16 15 4 8 -1.</_>
                <_>
                  16 19 4 4 2.</_></rects>
              <tilted>0</tilted></feature>
            <threshold>-4.1934989392757416e-002</threshold>
            <left_val>3.5283181071281433e-001</left_val>
            <right_val>-1.4849829673767090e-001</right_val></_></_>
        <_>
          <!-- tree 10 -->
          <_>
            <!-- root node -->
            <feature>
              <rects>
                <_>
                  0 12 24 12 -1.</_>
                <_>
                  0 12 12 6 2.</_>
                <_>
                  12 18 12 6 2.</_></rects>
              <tilted>0</tilted></feature>
            <threshold>-5.2805118262767792e-002</threshold>
            <left_val>-7.6885527372360229e-001</left_val>
            <right_val>1.8434900045394897e-001</right_val></_></_>
        <_>
          <!-- tree 11 -->
          <_>
            <!-- root node -->
            <feature>
              <rects>
                <_>
                  8 23 10 1 -1.</_>
                <_>
                  8 23 5 1 2.</_></rects>
              <tilted>0</tilted></feature>
            <threshold>-3.3311990555375814e-003</threshold>
            <left_val>-5.6374782323837280e-001</left_val>
            <right_val>1.1481329798698425e-001</right_val></_></_>
        <_>
          <!-- tree 12 -->
          <_>
            <!-- root node -->
            <feature>
              <rects>
                <_>
                  0 6 3 8 -1.</_>
                <_>
                  0 10 3 4 2.</_></rects>
              <tilted>0</tilted></feature>
            <threshold>7.7617638744413853e-003</threshold>
            <left_val>1.4368429780006409e-001</left_val>
            <right_val>-7.2792631387710571e-001</right_val></_></_>
        <_>
          <!-- tree 13 -->
          <_>
            <!-- root node -->
            <feature>
              <rects>
                <_>
                  10 4 6 14 -1.</_>
                <_>
                  10 11 6 7 2.</_></rects>
              <tilted>0</tilted></feature>
            <threshold>-2.7986150234937668e-003</threshold>
            <left_val>-4.5870959758758545e-001</left_val>
            <right_val>1.5261210501194000e-001</right_val></_></_>
        <_>
          <!-- tree 14 -->
          <_>
            <!-- root node -->
            <feature>
              <rects>
                <_>
                  1 15 18 3 -1.</_>
                <_>
                  1 16 18 1 3.</_></rects>
              <tilted>0</tilted></feature>
            <threshold>-8.9183198288083076e-003</threshold>
            <left_val>5.4187607765197754e-001</left_val>
            <right_val>-2.3169690370559692e-001</right_val></_></_>
        <_>
          <!-- tree 15 -->
          <_>
            <!-- root node -->
            <feature>
              <rects>
                <_>
                  0 0 24 2 -1.</_>
                <_>
                  8 0 8 2 3.</_></rects>
              <tilted>0</tilted></feature>
            <threshold>5.9373448602855206e-003</threshold>
            <left_val>-4.5498061180114746e-001</left_val>
            <right_val>2.9291298985481262e-001</right_val></_></_></trees>
      <stage_threshold>-1.3470209836959839e+000</stage_threshold>
      <parent>6</parent>
      <next>-1</next></_>
    <_>
      <!-- stage 8 -->
      <trees>
        <_>
          <!-- tree 0 -->
          <_>
            <!-- root node -->
            <feature>
              <rects>
                <_>
                  1 2 18 4 -1.</_>
                <_>
                  7 2 6 4 3.</_></rects>
              <tilted>0</tilted></feature>
            <threshold>-7.5136363506317139e-002</threshold>
            <left_val>7.7243191003799438e-001</left_val>
            <right_val>-2.5027519464492798e-001</right_val></_></_>
        <_>
          <!-- tree 1 -->
          <_>
            <!-- root node -->
            <feature>
              <rects>
                <_>
                  0 23 24 1 -1.</_>
                <_>
                  8 23 8 1 3.</_></rects>
              <tilted>0</tilted></feature>
            <threshold>-8.5315722972154617e-003</threshold>
            <left_val>2.3115250468254089e-001</left_val>
            <right_val>-6.5153247117996216e-001</right_val></_></_>
        <_>
          <!-- tree 2 -->
          <_>
            <!-- root node -->
            <feature>
              <rects>
                <_>
                  8 0 8 2 -1.</_>
                <_>
                  8 1 8 1 2.</_></rects>
              <tilted>0</tilted></feature>
            <threshold>7.0624221116304398e-003</threshold>
            <left_val>-2.3186460137367249e-001</left_val>
            <right_val>5.7834738492965698e-001</right_val></_></_>
        <_>
          <!-- tree 3 -->
          <_>
            <!-- root node -->
            <feature>
              <rects>
                <_>
                  8 0 10 3 -1.</_>
                <_>
                  8 1 10 1 3.</_></rects>
              <tilted>0</tilted></feature>
            <threshold>-1.1123090051114559e-002</threshold>
            <left_val>5.1701068878173828e-001</left_val>
            <right_val>-1.9895310699939728e-001</right_val></_></_>
        <_>
          <!-- tree 4 -->
          <_>
            <!-- root node -->
            <feature>
              <rects>
                <_>
                  6 20 12 4 -1.</_>
                <_>
                  10 20 4 4 3.</_></rects>
              <tilted>0</tilted></feature>
            <threshold>-9.4921952113509178e-003</threshold>
            <left_val>-7.1637147665023804e-001</left_val>
            <right_val>2.3783150315284729e-001</right_val></_></_>
        <_>
          <!-- tree 5 -->
          <_>
            <!-- root node -->
            <feature>
              <rects>
                <_>
                  9 0 6 6 -1.</_>
                <_>
                  9 0 3 6 2.</_></rects>
              <tilted>0</tilted></feature>
            <threshold>4.9418630078434944e-003</threshold>
            <left_val>1.2503589689731598e-001</left_val>
            <right_val>-7.7194702625274658e-001</right_val></_></_>
        <_>
          <!-- tree 6 -->
          <_>
            <!-- root node -->
            <feature>
              <rects>
                <_>
                  2 0 20 4 -1.</_>
                <_>
                  12 0 10 4 2.</_></rects>
              <tilted>0</tilted></feature>
            <threshold>2.3225899785757065e-002</threshold>
            <left_val>1.5799829363822937e-001</left_val>
            <right_val>-6.8219131231307983e-001</right_val></_></_>
        <_>
          <!-- tree 7 -->
          <_>
            <!-- root node -->
            <feature>
              <rects>
                <_>
                  9 0 12 6 -1.</_>
                <_>
                  13 0 4 6 3.</_></rects>
              <tilted>0</tilted></feature>
            <threshold>4.0439898148179054e-003</threshold>
            <left_val>-2.7273109555244446e-001</left_val>
            <right_val>1.7712600529193878e-001</right_val></_></_>
        <_>
          <!-- tree 8 -->
          <_>
            <!-- root node -->
            <feature>
              <rects>
                <_>
                  3 8 18 2 -1.</_>
                <_>
                  9 8 6 2 3.</_></rects>
              <tilted>0</tilted></feature>
            <threshold>-5.7965400628745556e-003</threshold>
            <left_val>2.6742270588874817e-001</left_val>
            <right_val>-4.6520251035690308e-001</right_val></_></_>
        <_>
          <!-- tree 9 -->
          <_>
            <!-- root node -->
            <feature>
              <rects>
                <_>
                  12 0 8 2 -1.</_>
                <_>
                  12 0 4 2 2.</_></rects>
              <tilted>0</tilted></feature>
            <threshold>-3.8582400884479284e-003</threshold>
            <left_val>-4.7576341032981873e-001</left_val>
            <right_val>6.0649730265140533e-002</right_val></_></_>
        <_>
          <!-- tree 10 -->
          <_>
            <!-- root node -->
            <feature>
              <rects>
                <_>
                  0 11 24 2 -1.</_>
                <_>
                  12 11 12 2 2.</_></rects>
              <tilted>0</tilted></feature>
            <threshold>-1.9045930355787277e-002</threshold>
            <left_val>-9.2058938741683960e-001</left_val>
            <right_val>1.2957769632339478e-001</right_val></_></_>
        <_>
          <!-- tree 11 -->
          <_>
            <!-- root node -->
            <feature>
              <rects>
                <_>
                  16 11 6 12 -1.</_>
                <_>
                  16 17 6 6 2.</_></rects>
              <tilted>0</tilted></feature>
            <threshold>-2.0703990012407303e-002</threshold>
            <left_val>6.7439317703247070e-002</left_val>
            <right_val>-3.4262859821319580e-001</right_val></_></_>
        <_>
          <!-- tree 12 -->
          <_>
            <!-- root node -->
            <feature>
              <rects>
                <_>
                  0 19 2 1 -1.</_>
                <_>
                  1 19 1 1 2.</_></rects>
              <tilted>0</tilted></feature>
            <threshold>-2.5232580810552463e-005</threshold>
            <left_val>2.4420259892940521e-001</left_val>
            <right_val>-4.8968169093132019e-001</right_val></_></_>
        <_>
          <!-- tree 13 -->
          <_>
            <!-- root node -->
            <feature>
              <rects>
                <_>
                  8 0 15 7 -1.</_>
                <_>
                  13 0 5 7 3.</_></rects>
              <tilted>0</tilted></feature>
            <threshold>-5.2969340234994888e-002</threshold>
            <left_val>-8.5178017616271973e-001</left_val>
            <right_val>2.7970340102910995e-002</right_val></_></_>
        <_>
          <!-- tree 14 -->
          <_>
            <!-- root node -->
            <feature>
              <rects>
                <_>
                  1 0 15 7 -1.</_>
                <_>
                  6 0 5 7 3.</_></rects>
              <tilted>0</tilted></feature>
            <threshold>2.5109240785241127e-002</threshold>
            <left_val>-2.9656469821929932e-001</left_val>
            <right_val>4.7339370846748352e-001</right_val></_></_></trees>
      <stage_threshold>-1.1172720193862915e+000</stage_threshold>
      <parent>7</parent>
      <next>-1</next></_>
    <_>
      <!-- stage 9 -->
      <trees>
        <_>
          <!-- tree 0 -->
          <_>
            <!-- root node -->
            <feature>
              <rects>
                <_>
                  0 3 14 6 -1.</_>
                <_>
                  0 3 7 3 2.</_>
                <_>
                  7 6 7 3 2.</_></rects>
              <tilted>0</tilted></feature>
            <threshold>3.9184231311082840e-002</threshold>
            <left_val>-2.4608810245990753e-001</left_val>
            <right_val>8.1381052732467651e-001</right_val></_></_>
        <_>
          <!-- tree 1 -->
          <_>
            <!-- root node -->
            <feature>
              <rects>
                <_>
                  13 12 11 12 -1.</_>
                <_>
                  13 18 11 6 2.</_></rects>
              <tilted>0</tilted></feature>
            <threshold>-3.0475230887532234e-002</threshold>
            <left_val>1.2658989429473877e-001</left_val>
            <right_val>-5.2976608276367188e-001</right_val></_></_>
        <_>
          <!-- tree 2 -->
          <_>
            <!-- root node -->
            <feature>
              <rects>
                <_>
                  0 5 24 10 -1.</_>
                <_>
                  0 5 12 5 2.</_>
                <_>
                  12 10 12 5 2.</_></rects>
              <tilted>0</tilted></feature>
            <threshold>6.2578983604907990e-002</threshold>
            <left_val>1.6496910154819489e-001</left_val>
            <right_val>-8.2479310035705566e-001</right_val></_></_>
        <_>
          <!-- tree 3 -->
          <_>
            <!-- root node -->
            <feature>
              <rects>
                <_>
                  14 8 10 4 -1.</_>
                <_>
                  14 8 5 4 2.</_></rects>
              <tilted>0</tilted></feature>
            <threshold>-1.2898449786007404e-002</threshold>
            <left_val>1.3700349628925323e-001</left_val>
            <right_val>-1.6850149631500244e-001</right_val></_></_>
        <_>
          <!-- tree 4 -->
          <_>
            <!-- root node -->
            <feature>
              <rects>
                <_>
                  0 8 10 4 -1.</_>
                <_>
                  5 8 5 4 2.</_></rects>
              <tilted>0</tilted></feature>
            <threshold>-9.7087314352393150e-003</threshold>
            <left_val>3.0527919530868530e-001</left_val>
            <right_val>-4.5828860998153687e-001</right_val></_></_>
        <_>
          <!-- tree 5 -->
          <_>
            <!-- root node -->
            <feature>
              <rects>
                <_>
                  14 23 3 1 -1.</_>
                <_>
                  15 23 1 1 3.</_></rects>
              <tilted>0</tilted></feature>
            <threshold>-3.5082778776995838e-004</threshold>
            <left_val>-7.8080070018768311e-001</left_val>
            <right_val>1.3580100238323212e-001</right_val></_></_>
        <_>
          <!-- tree 6 -->
          <_>
            <!-- root node -->
            <feature>
              <rects>
                <_>
                  4 2 3 4 -1.</_>
                <_>
                  5 2 1 4 3.</_></rects>
              <tilted>0</tilted></feature>
            <threshold>2.2865990176796913e-003</threshold>
            <left_val>-2.3594060540199280e-001</left_val>
            <right_val>4.9423259496688843e-001</right_val></_></_>
        <_>
          <!-- tree 7 -->
          <_>
            <!-- root node -->
            <feature>
              <rects>
                <_>
                  22 16 2 3 -1.</_>
                <_>
                  22 17 2 1 3.</_></rects>
              <tilted>0</tilted></feature>
            <threshold>1.0754029499366879e-003</threshold>
            <left_val>1.2889680266380310e-001</left_val>
            <right_val>-4.7461861371994019e-001</right_val></_></_>
        <_>
          <!-- tree 8 -->
          <_>
            <!-- root node -->
            <feature>
              <rects>
                <_>
                  0 16 2 3 -1.</_>
                <_>
                  0 17 2 1 3.</_></rects>
              <tilted>0</tilted></feature>
            <threshold>7.4971211142838001e-004</threshold>
            <left_val>1.6950629651546478e-001</left_val>
            <right_val>-6.1759269237518311e-001</right_val></_></_>
        <_>
          <!-- tree 9 -->
          <_>
            <!-- root node -->
            <feature>
              <rects>
                <_>
                  15 16 8 6 -1.</_>
                <_>
                  15 19 8 3 2.</_></rects>
              <tilted>0</tilted></feature>
            <threshold>-3.9359450340270996e-002</threshold>
            <left_val>8.1843860447406769e-002</left_val>
            <right_val>-6.4034812152385712e-002</right_val></_></_>
        <_>
          <!-- tree 10 -->
          <_>
            <!-- root node -->
            <feature>
              <rects>
                <_>
                  1 16 8 6 -1.</_>
                <_>
                  1 19 8 3 2.</_></rects>
              <tilted>0</tilted></feature>
            <threshold>-3.5583239514380693e-003</threshold>
            <left_val>1.5761269629001617e-001</left_val>
            <right_val>-7.5989502668380737e-001</right_val></_></_>
        <_>
          <!-- tree 11 -->
          <_>
            <!-- root node -->
            <feature>
              <rects>
                <_>
                  21 2 3 10 -1.</_>
                <_>
                  21 7 3 5 2.</_></rects>
              <tilted>0</tilted></feature>
            <threshold>2.5333510711789131e-002</threshold>
            <left_val>6.5913490951061249e-002</left_val>
            <right_val>-6.6779541969299316e-001</right_val></_></_>
        <_>
          <!-- tree 12 -->
          <_>
            <!-- root node -->
            <feature>
              <rects>
                <_>
                  0 2 3 10 -1.</_>
                <_>
                  0 7 3 5 2.</_></rects>
              <tilted>0</tilted></feature>
            <threshold>1.3318859972059727e-002</threshold>
            <left_val>1.1906939744949341e-001</left_val>
            <right_val>-8.1189709901809692e-001</right_val></_></_>
        <_>
          <!-- tree 13 -->
          <_>
            <!-- root node -->
            <feature>
              <rects>
                <_>
                  0 4 24 1 -1.</_>
                <_>
                  8 4 8 1 3.</_></rects>
              <tilted>0</tilted></feature>
            <threshold>2.2743459790945053e-002</threshold>
            <left_val>-2.3803959786891937e-001</left_val>
            <right_val>4.9666291475296021e-001</right_val></_></_>
        <_>
          <!-- tree 14 -->
          <_>
            <!-- root node -->
            <feature>
              <rects>
                <_>
                  5 0 11 9 -1.</_>
                <_>
                  5 3 11 3 3.</_></rects>
              <tilted>0</tilted></feature>
            <threshold>-8.4715656936168671e-002</threshold>
            <left_val>6.4429157972335815e-001</left_val>
            <right_val>-2.4039019644260406e-001</right_val></_></_>
        <_>
          <!-- tree 15 -->
          <_>
            <!-- root node -->
            <feature>
              <rects>
                <_>
                  7 0 10 4 -1.</_>
                <_>
                  7 2 10 2 2.</_></rects>
              <tilted>0</tilted></feature>
            <threshold>1.6547659412026405e-002</threshold>
            <left_val>-2.6412388682365417e-001</left_val>
            <right_val>4.8951789736747742e-001</right_val></_></_>
        <_>
          <!-- tree 16 -->
          <_>
            <!-- root node -->
            <feature>
              <rects>
                <_>
                  0 5 24 2 -1.</_>
                <_>
                  8 5 8 2 3.</_></rects>
              <tilted>0</tilted></feature>
            <threshold>-3.2217040657997131e-002</threshold>
            <left_val>4.6462249755859375e-001</left_val>
            <right_val>-3.2087808847427368e-001</right_val></_></_>
        <_>
          <!-- tree 17 -->
          <_>
            <!-- root node -->
            <feature>
              <rects>
                <_>
                  14 11 9 6 -1.</_>
                <_>
                  14 13 9 2 3.</_></rects>
              <tilted>0</tilted></feature>
            <threshold>1.4735110104084015e-002</threshold>
            <left_val>-1.8063800036907196e-001</left_val>
            <right_val>2.9862371087074280e-001</right_val></_></_>
        <_>
          <!-- tree 18 -->
          <_>
            <!-- root node -->
            <feature>
              <rects>
                <_>
                  8 1 6 3 -1.</_>
                <_>
                  11 1 3 3 2.</_></rects>
              <tilted>0</tilted></feature>
            <threshold>6.0249180532991886e-003</threshold>
            <left_val>1.1650130152702332e-001</left_val>
            <right_val>-9.2849338054656982e-001</right_val></_></_>
        <_>
          <!-- tree 19 -->
          <_>
            <!-- root node -->
            <feature>
              <rects>
                <_>
                  9 1 6 4 -1.</_>
                <_>
                  11 1 2 4 3.</_></rects>
              <tilted>0</tilted></feature>
            <threshold>-7.9300338402390480e-003</threshold>
            <left_val>-9.7166311740875244e-001</left_val>
            <right_val>8.5802987217903137e-002</right_val></_></_></trees>
      <stage_threshold>-1.5009859800338745e+000</stage_threshold>
      <parent>8</parent>
      <next>-1</next></_>
    <_>
      <!-- stage 10 -->
      <trees>
        <_>
          <!-- tree 0 -->
          <_>
            <!-- root node -->
            <feature>
              <rects>
                <_>
                  6 11 12 4 -1.</_>
                <_>
                  10 11 4 4 3.</_></rects>
              <tilted>0</tilted></feature>
            <threshold>-4.1221440769731998e-003</threshold>
            <left_val>4.1323620080947876e-001</left_val>
            <right_val>-4.9202409386634827e-001</right_val></_></_>
        <_>
          <!-- tree 1 -->
          <_>
            <!-- root node -->
            <feature>
              <rects>
                <_>
                  19 22 3 2 -1.</_>
                <_>
                  19 23 3 1 2.</_></rects>
              <tilted>0</tilted></feature>
            <threshold>1.7127070168498904e-004</threshold>
            <left_val>-5.2941507101058960e-001</left_val>
            <right_val>3.0836668610572815e-001</right_val></_></_>
        <_>
          <!-- tree 2 -->
          <_>
            <!-- root node -->
            <feature>
              <rects>
                <_>
                  2 18 10 1 -1.</_>
                <_>
                  7 18 5 1 2.</_></rects>
              <tilted>0</tilted></feature>
            <threshold>2.1817600354552269e-003</threshold>
            <left_val>-4.1238129138946533e-001</left_val>
            <right_val>2.8142499923706055e-001</right_val></_></_>
        <_>
          <!-- tree 3 -->
          <_>
            <!-- root node -->
            <feature>
              <rects>
                <_>
                  10 23 6 1 -1.</_>
                <_>
                  12 23 2 1 3.</_></rects>
              <tilted>0</tilted></feature>
            <threshold>-2.0082609262317419e-003</threshold>
            <left_val>-8.2635301351547241e-001</left_val>
            <right_val>1.3132150471210480e-001</right_val></_></_>
        <_>
          <!-- tree 4 -->
          <_>
            <!-- root node -->
            <feature>
              <rects>
                <_>
                  9 22 6 2 -1.</_>
                <_>
                  11 22 2 2 3.</_></rects>
              <tilted>0</tilted></feature>
            <threshold>7.8205537283793092e-004</threshold>
            <left_val>1.9918480515480042e-001</left_val>
            <right_val>-6.3787347078323364e-001</right_val></_></_>
        <_>
          <!-- tree 5 -->
          <_>
            <!-- root node -->
            <feature>
              <rects>
                <_>
                  20 23 4 1 -1.</_>
                <_>
                  20 23 2 1 2.</_></rects>
              <tilted>0</tilted></feature>
            <threshold>-5.2690942538902164e-004</threshold>
            <left_val>2.2611339390277863e-001</left_val>
            <right_val>-3.7415701150894165e-001</right_val></_></_>
        <_>
          <!-- tree 6 -->
          <_>
            <!-- root node -->
            <feature>
              <rects>
                <_>
                  3 12 16 3 -1.</_>
                <_>
                  3 13 16 1 3.</_></rects>
              <tilted>0</tilted></feature>
            <threshold>-1.4561929740011692e-002</threshold>
            <left_val>6.9038242101669312e-001</left_val>
            <right_val>-1.8125070631504059e-001</right_val></_></_>
        <_>
          <!-- tree 7 -->
          <_>
            <!-- root node -->
            <feature>
              <rects>
                <_>
                  11 0 2 2 -1.</_>
                <_>
                  11 1 2 1 2.</_></rects>
              <tilted>0</tilted></feature>
            <threshold>9.5857377164065838e-004</threshold>
            <left_val>-2.6309040188789368e-001</left_val>
            <right_val>4.7473248839378357e-001</right_val></_></_>
        <_>
          <!-- tree 8 -->
          <_>
            <!-- root node -->
            <feature>
              <rects>
                <_>
                  9 22 6 1 -1.</_>
                <_>
                  11 22 2 1 3.</_></rects>
              <tilted>0</tilted></feature>
            <threshold>-6.8007648224011064e-004</threshold>
            <left_val>-6.7735260725021362e-001</left_val>
            <right_val>1.8316939473152161e-001</right_val></_></_>
        <_>
          <!-- tree 9 -->
          <_>
            <!-- root node -->
            <feature>
              <rects>
                <_>
                  20 23 4 1 -1.</_>
                <_>
                  20 23 2 1 2.</_></rects>
              <tilted>0</tilted></feature>
            <threshold>-8.5922982543706894e-003</threshold>
            <left_val>-9.7138798236846924e-001</left_val>
            <right_val>-6.8980972282588482e-003</right_val></_></_>
        <_>
          <!-- tree 10 -->
          <_>
            <!-- root node -->
            <feature>
              <rects>
                <_>
                  0 23 4 1 -1.</_>
                <_>
                  2 23 2 1 2.</_></rects>
              <tilted>0</tilted></feature>
            <threshold>-3.8953628973104060e-004</threshold>
            <left_val>2.1185980737209320e-001</left_val>
            <right_val>-5.4778808355331421e-001</right_val></_></_>
        <_>
          <!-- tree 11 -->
          <_>
            <!-- root node -->
            <feature>
              <rects>
                <_>
                  5 0 16 2 -1.</_>
                <_>
                  5 0 8 2 2.</_></rects>
              <tilted>0</tilted></feature>
            <threshold>2.0264310762286186e-002</threshold>
            <left_val>7.7348336577415466e-002</left_val>
            <right_val>-5.4460817575454712e-001</right_val></_></_>
        <_>
          <!-- tree 12 -->
          <_>
            <!-- root node -->
            <feature>
              <rects>
                <_>
                  1 0 6 15 -1.</_>
                <_>
                  1 5 6 5 3.</_></rects>
              <tilted>0</tilted></feature>
            <threshold>3.2636728137731552e-002</threshold>
            <left_val>1.2248689681291580e-001</left_val>
            <right_val>-8.9831459522247314e-001</right_val></_></_>
        <_>
          <!-- tree 13 -->
          <_>
            <!-- root node -->
            <feature>
              <rects>
                <_>
                  3 20 21 4 -1.</_>
                <_>
                  3 22 21 2 2.</_></rects>
              <tilted>0</tilted></feature>
            <threshold>-7.1598857641220093e-002</threshold>
            <left_val>7.6436221599578857e-001</left_val>
            <right_val>-1.5947659313678741e-001</right_val></_></_>
        <_>
          <!-- tree 14 -->
          <_>
            <!-- root node -->
            <feature>
              <rects>
                <_>
                  0 22 5 2 -1.</_>
                <_>
                  0 23 5 1 2.</_></rects>
              <tilted>0</tilted></feature>
            <threshold>1.4822910088696517e-005</threshold>
            <left_val>-5.4045891761779785e-001</left_val>
            <right_val>2.8070259094238281e-001</right_val></_></_>
        <_>
          <!-- tree 15 -->
          <_>
            <!-- root node -->
            <feature>
              <rects>
                <_>
                  6 8 17 3 -1.</_>
                <_>
                  6 9 17 1 3.</_></rects>
              <tilted>0</tilted></feature>
            <threshold>2.8186920098960400e-003</threshold>
            <left_val>-2.3611110448837280e-001</left_val>
            <right_val>3.1887739896774292e-001</right_val></_></_>
        <_>
          <!-- tree 16 -->
          <_>
            <!-- root node -->
            <feature>
              <rects>
                <_>
                  0 18 1 6 -1.</_>
                <_>
                  0 20 1 2 3.</_></rects>
              <tilted>0</tilted></feature>
            <threshold>-3.0715679749846458e-003</threshold>
            <left_val>-7.1798932552337646e-001</left_val>
            <right_val>1.7379090189933777e-001</right_val></_></_>
        <_>
          <!-- tree 17 -->
          <_>
            <!-- root node -->
            <feature>
              <rects>
                <_>
                  17 1 3 6 -1.</_>
                <_>
                  18 1 1 6 3.</_></rects>
              <tilted>0</tilted></feature>
            <threshold>2.3912710603326559e-003</threshold>
            <left_val>-2.1022300422191620e-001</left_val>
            <right_val>3.7221729755401611e-001</right_val></_></_></trees>
      <stage_threshold>-1.3713740110397339e+000</stage_threshold>
      <parent>9</parent>
      <next>-1</next></_>
    <_>
      <!-- stage 11 -->
      <trees>
        <_>
          <!-- tree 0 -->
          <_>
            <!-- root node -->
            <feature>
              <rects>
                <_>
                  2 4 8 4 -1.</_>
                <_>
                  2 4 4 2 2.</_>
                <_>
                  6 6 4 2 2.</_></rects>
              <tilted>0</tilted></feature>
            <threshold>1.1391730047762394e-002</threshold>
            <left_val>-2.5208720564842224e-001</left_val>
            <right_val>7.5090670585632324e-001</right_val></_></_>
        <_>
          <!-- tree 1 -->
          <_>
            <!-- root node -->
            <feature>
              <rects>
                <_>
                  5 7 18 5 -1.</_>
                <_>
                  11 7 6 5 3.</_></rects>
              <tilted>0</tilted></feature>
            <threshold>-2.1033979952335358e-002</threshold>
            <left_val>2.7239111065864563e-001</left_val>
            <right_val>-2.6937758922576904e-001</right_val></_></_>
        <_>
          <!-- tree 2 -->
          <_>
            <!-- root node -->
            <feature>
              <rects>
                <_>
                  0 7 13 15 -1.</_>
                <_>
                  0 12 13 5 3.</_></rects>
              <tilted>0</tilted></feature>
            <threshold>4.5543529093265533e-002</threshold>
            <left_val>-6.4931052923202515e-001</left_val>
            <right_val>2.1115539968013763e-001</right_val></_></_>
        <_>
          <!-- tree 3 -->
          <_>
            <!-- root node -->
            <feature>
              <rects>
                <_>
                  9 7 15 5 -1.</_>
                <_>
                  14 7 5 5 3.</_></rects>
              <tilted>0</tilted></feature>
            <threshold>2.8836920857429504e-002</threshold>
            <left_val>-9.4241566956043243e-002</left_val>
            <right_val>3.8138648867607117e-001</right_val></_></_>
        <_>
          <!-- tree 4 -->
          <_>
            <!-- root node -->
            <feature>
              <rects>
                <_>
                  0 7 15 5 -1.</_>
                <_>
                  5 7 5 5 3.</_></rects>
              <tilted>0</tilted></feature>
            <threshold>-3.9695249870419502e-003</threshold>
            <left_val>2.8552618622779846e-001</left_val>
            <right_val>-5.2945721149444580e-001</right_val></_></_>
        <_>
          <!-- tree 5 -->
          <_>
            <!-- root node -->
            <feature>
              <rects>
                <_>
                  16 0 8 3 -1.</_>
                <_>
                  16 0 4 3 2.</_></rects>
              <tilted>0</tilted></feature>
            <threshold>1.3248910545371473e-004</threshold>
            <left_val>-3.3132338523864746e-001</left_val>
            <right_val>1.2205729633569717e-001</right_val></_></_>
        <_>
          <!-- tree 6 -->
          <_>
            <!-- root node -->
            <feature>
              <rects>
                <_>
                  6 23 4 1 -1.</_>
                <_>
                  8 23 2 1 2.</_></rects>
              <tilted>0</tilted></feature>
            <threshold>1.9517830514814705e-004</threshold>
            <left_val>2.3704229295253754e-001</left_val>
            <right_val>-5.4075682163238525e-001</right_val></_></_>
        <_>
          <!-- tree 7 -->
          <_>
            <!-- root node -->
            <feature>
              <rects>
                <_>
                  14 1 6 6 -1.</_>
                <_>
                  16 1 2 6 3.</_></rects>
              <tilted>0</tilted></feature>
            <threshold>4.0096151642501354e-003</threshold>
            <left_val>-1.5290829539299011e-001</left_val>
            <right_val>1.8901860713958740e-001</right_val></_></_>
        <_>
          <!-- tree 8 -->
          <_>
            <!-- root node -->
            <feature>
              <rects>
                <_>
                  0 0 20 2 -1.</_>
                <_>
                  10 0 10 2 2.</_></rects>
              <tilted>0</tilted></feature>
            <threshold>-1.5360389836132526e-002</threshold>
            <left_val>-7.5661742687225342e-001</left_val>
            <right_val>1.8750150501728058e-001</right_val></_></_>
        <_>
          <!-- tree 9 -->
          <_>
            <!-- root node -->
            <feature>
              <rects>
                <_>
                  0 0 24 23 -1.</_>
                <_>
                  0 0 12 23 2.</_></rects>
              <tilted>0</tilted></feature>
            <threshold>-2.0345500111579895e-001</threshold>
            <left_val>-7.0134812593460083e-001</left_val>
            <right_val>1.5128560364246368e-001</right_val></_></_>
        <_>
          <!-- tree 10 -->
          <_>
            <!-- root node -->
            <feature>
              <rects>
                <_>
                  8 21 2 3 -1.</_>
                <_>
                  9 21 1 3 2.</_></rects>
              <tilted>0</tilted></feature>
            <threshold>-3.5862441291101277e-004</threshold>
            <left_val>-7.0417797565460205e-001</left_val>
            <right_val>1.2833750247955322e-001</right_val></_></_>
        <_>
          <!-- tree 11 -->
          <_>
            <!-- root node -->
            <feature>
              <rects>
                <_>
                  8 0 10 6 -1.</_>
                <_>
                  8 3 10 3 2.</_></rects>
              <tilted>0</tilted></feature>
            <threshold>3.7814911454916000e-002</threshold>
            <left_val>-1.7355769872665405e-001</left_val>
            <right_val>6.1223900318145752e-001</right_val></_></_>
        <_>
          <!-- tree 12 -->
          <_>
            <!-- root node -->
            <feature>
              <rects>
                <_>
                  0 7 4 6 -1.</_>
                <_>
                  0 10 4 3 2.</_></rects>
              <tilted>0</tilted></feature>
            <threshold>9.9146869033575058e-003</threshold>
            <left_val>1.8262030184268951e-001</left_val>
            <right_val>-7.5375407934188843e-001</right_val></_></_>
        <_>
          <!-- tree 13 -->
          <_>
            <!-- root node -->
            <feature>
              <rects>
                <_>
                  12 11 7 3 -1.</_>
                <_>
                  12 12 7 1 3.</_></rects>
              <tilted>0</tilted></feature>
            <threshold>2.4757341016083956e-003</threshold>
            <left_val>-2.3689639568328857e-001</left_val>
            <right_val>3.1020331382751465e-001</right_val></_></_>
        <_>
          <!-- tree 14 -->
          <_>
            <!-- root node -->
            <feature>
              <rects>
                <_>
                  2 10 18 3 -1.</_>
                <_>
                  2 11 18 1 3.</_></rects>
              <tilted>0</tilted></feature>
            <threshold>8.3968676626682281e-003</threshold>
            <left_val>-2.1068289875984192e-001</left_val>
            <right_val>5.7589632272720337e-001</right_val></_></_>
        <_>
          <!-- tree 15 -->
          <_>
            <!-- root node -->
            <feature>
              <rects>
                <_>
                  14 14 10 6 -1.</_>
                <_>
                  14 17 10 3 2.</_></rects>
              <tilted>0</tilted></feature>
            <threshold>-8.3495758473873138e-002</threshold>
            <left_val>-7.9016572237014771e-001</left_val>
            <right_val>5.2677910774946213e-002</right_val></_></_>
        <_>
          <!-- tree 16 -->
          <_>
            <!-- root node -->
            <feature>
              <rects>
                <_>
                  4 10 16 3 -1.</_>
                <_>
                  4 11 16 1 3.</_></rects>
              <tilted>0</tilted></feature>
            <threshold>-2.3919010534882545e-002</threshold>
            <left_val>7.5448870658874512e-001</left_val>
            <right_val>-1.5144389867782593e-001</right_val></_></_>
        <_>
          <!-- tree 17 -->
          <_>
            <!-- root node -->
            <feature>
              <rects>
                <_>
                  5 16 14 3 -1.</_>
                <_>
                  5 17 14 1 3.</_></rects>
              <tilted>0</tilted></feature>
            <threshold>-3.5105650313198566e-003</threshold>
            <left_val>4.8829621076583862e-001</left_val>
            <right_val>-2.2766199707984924e-001</right_val></_></_></trees>
      <stage_threshold>-1.2506389617919922e+000</stage_threshold>
      <parent>10</parent>
      <next>-1</next></_>
    <_>
      <!-- stage 12 -->
      <trees>
        <_>
          <!-- tree 0 -->
          <_>
            <!-- root node -->
            <feature>
              <rects>
                <_>
                  0 14 18 2 -1.</_>
                <_>
                  6 14 6 2 3.</_></rects>
              <tilted>0</tilted></feature>
            <threshold>-3.5430770367383957e-002</threshold>
            <left_val>9.0096789598464966e-001</left_val>
            <right_val>-2.4904009699821472e-001</right_val></_></_>
        <_>
          <!-- tree 1 -->
          <_>
            <!-- root node -->
            <feature>
              <rects>
                <_>
                  22 6 2 14 -1.</_>
                <_>
                  22 13 2 7 2.</_></rects>
              <tilted>0</tilted></feature>
            <threshold>-2.5273470208048820e-002</threshold>
            <left_val>-3.4709981083869934e-001</left_val>
            <right_val>1.1183120310306549e-001</right_val></_></_>
        <_>
          <!-- tree 2 -->
          <_>
            <!-- root node -->
            <feature>
              <rects>
                <_>
                  0 4 1 16 -1.</_>
                <_>
                  0 12 1 8 2.</_></rects>
              <tilted>0</tilted></feature>
            <threshold>1.7857659840956330e-003</threshold>
            <left_val>2.4105359613895416e-001</left_val>
            <right_val>-7.0124638080596924e-001</right_val></_></_>
        <_>
          <!-- tree 3 -->
          <_>
            <!-- root node -->
            <feature>
              <rects>
                <_>
                  4 13 20 10 -1.</_>
                <_>
                  14 13 10 5 2.</_>
                <_>
                  4 18 10 5 2.</_></rects>
              <tilted>0</tilted></feature>
            <threshold>-1.0347229987382889e-001</threshold>
            <left_val>-5.0651419162750244e-001</left_val>
            <right_val>-3.9660338312387466e-002</right_val></_></_>
        <_>
          <!-- tree 4 -->
          <_>
            <!-- root node -->
            <feature>
              <rects>
                <_>
                  0 13 20 10 -1.</_>
                <_>
                  0 13 10 5 2.</_>
                <_>
                  10 18 10 5 2.</_></rects>
              <tilted>0</tilted></feature>
            <threshold>-2.4183519184589386e-002</threshold>
            <left_val>4.4538259506225586e-001</left_val>
            <right_val>-3.2321810722351074e-001</right_val></_></_>
        <_>
          <!-- tree 5 -->
          <_>
            <!-- root node -->
            <feature>
              <rects>
                <_>
                  17 12 5 12 -1.</_>
                <_>
                  17 18 5 6 2.</_></rects>
              <tilted>0</tilted></feature>
            <threshold>-9.4696819782257080e-002</threshold>
            <left_val>5.9628212451934814e-001</left_val>
            <right_val>-8.3898560842499137e-004</right_val></_></_>
        <_>
          <!-- tree 6 -->
          <_>
            <!-- root node -->
            <feature>
              <rects>
                <_>
                  2 12 5 12 -1.</_>
                <_>
                  2 18 5 6 2.</_></rects>
              <tilted>0</tilted></feature>
            <threshold>-1.1758299544453621e-002</threshold>
            <left_val>2.0957769453525543e-001</left_val>
            <right_val>-8.1529849767684937e-001</right_val></_></_>
        <_>
          <!-- tree 7 -->
          <_>
            <!-- root node -->
            <feature>
              <rects>
                <_>
                  4 15 20 9 -1.</_>
                <_>
                  4 18 20 3 3.</_></rects>
              <tilted>0</tilted></feature>
            <threshold>7.3792092502117157e-002</threshold>
            <left_val>-2.2960039973258972e-001</left_val>
            <right_val>6.0450458526611328e-001</right_val></_></_>
        <_>
          <!-- tree 8 -->
          <_>
            <!-- root node -->
            <feature>
              <rects>
                <_>
                  1 1 11 4 -1.</_>
                <_>
                  1 3 11 2 2.</_></rects>
              <tilted>0</tilted></feature>
            <threshold>-3.1927090138196945e-002</threshold>
            <left_val>7.0205301046371460e-001</left_val>
            <right_val>-2.1745069324970245e-001</right_val></_></_>
        <_>
          <!-- tree 9 -->
          <_>
            <!-- root node -->
            <feature>
              <rects>
                <_>
                  5 3 18 1 -1.</_>
                <_>
                  11 3 6 1 3.</_></rects>
              <tilted>0</tilted></feature>
            <threshold>1.2607719749212265e-002</threshold>
            <left_val>-1.9316129386425018e-001</left_val>
            <right_val>4.2257979512214661e-001</right_val></_></_>
        <_>
          <!-- tree 10 -->
          <_>
            <!-- root node -->
            <feature>
              <rects>
                <_>
                  6 22 6 2 -1.</_>
                <_>
                  6 23 6 1 2.</_></rects>
              <tilted>0</tilted></feature>
            <threshold>1.6844699857756495e-003</threshold>
            <left_val>-3.1402099132537842e-001</left_val>
            <right_val>5.5312591791152954e-001</right_val></_></_>
        <_>
          <!-- tree 11 -->
          <_>
            <!-- root node -->
            <feature>
              <rects>
                <_>
                  11 18 6 4 -1.</_>
                <_>
                  13 18 2 4 3.</_></rects>
              <tilted>0</tilted></feature>
            <threshold>1.8742300570011139e-002</threshold>
            <left_val>2.3789040744304657e-002</left_val>
            <right_val>-8.3853137493133545e-001</right_val></_></_>
        <_>
          <!-- tree 12 -->
          <_>
            <!-- root node -->
            <feature>
              <rects>
                <_>
                  1 4 20 4 -1.</_>
                <_>
                  11 4 10 4 2.</_></rects>
              <tilted>0</tilted></feature>
            <threshold>3.8685239851474762e-002</threshold>
            <left_val>1.6777670383453369e-001</left_val>
            <right_val>-8.2670217752456665e-001</right_val></_></_>
        <_>
          <!-- tree 13 -->
          <_>
            <!-- root node -->
            <feature>
              <rects>
                <_>
                  14 1 6 5 -1.</_>
                <_>
                  16 1 2 5 3.</_></rects>
              <tilted>0</tilted></feature>
            <threshold>2.4900850839912891e-003</threshold>
            <left_val>-2.0573370158672333e-001</left_val>
            <right_val>1.4097629487514496e-001</right_val></_></_>
        <_>
          <!-- tree 14 -->
          <_>
            <!-- root node -->
            <feature>
              <rects>
                <_>
                  7 23 3 1 -1.</_>
                <_>
                  8 23 1 1 3.</_></rects>
              <tilted>0</tilted></feature>
            <threshold>2.6808920665644109e-004</threshold>
            <left_val>1.7091779410839081e-001</left_val>
            <right_val>-7.7717667818069458e-001</right_val></_></_>
        <_>
          <!-- tree 15 -->
          <_>
            <!-- root node -->
            <feature>
              <rects>
                <_>
                  3 0 20 22 -1.</_>
                <_>
                  3 0 10 22 2.</_></rects>
              <tilted>0</tilted></feature>
            <threshold>1.3128380477428436e-001</threshold>
            <left_val>4.0524829179048538e-002</left_val>
            <right_val>-8.8563060760498047e-001</right_val></_></_>
        <_>
          <!-- tree 16 -->
          <_>
            <!-- root node -->
            <feature>
              <rects>
                <_>
                  4 1 6 5 -1.</_>
                <_>
                  6 1 2 5 3.</_></rects>
              <tilted>0</tilted></feature>
            <threshold>5.2500441670417786e-003</threshold>
            <left_val>-2.7251899242401123e-001</left_val>
            <right_val>5.9482538700103760e-001</right_val></_></_>
        <_>
          <!-- tree 17 -->
          <_>
            <!-- root node -->
            <feature>
              <rects>
                <_>
                  11 18 6 4 -1.</_>
                <_>
                  13 18 2 4 3.</_></rects>
              <tilted>0</tilted></feature>
            <threshold>2.5430980604141951e-003</threshold>
            <left_val>9.0658977627754211e-002</left_val>
            <right_val>-2.2523279488086700e-001</right_val></_></_>
        <_>
          <!-- tree 18 -->
          <_>
            <!-- root node -->
            <feature>
              <rects>
                <_>
                  7 18 6 4 -1.</_>
                <_>
                  9 18 2 4 3.</_></rects>
              <tilted>0</tilted></feature>
            <threshold>-9.0097577776759863e-004</threshold>
            <left_val>-4.8899391293525696e-001</left_val>
            <right_val>2.7983540296554565e-001</right_val></_></_>
        <_>
          <!-- tree 19 -->
          <_>
            <!-- root node -->
            <feature>
              <rects>
                <_>
                  14 15 1 3 -1.</_>
                <_>
                  14 16 1 1 3.</_></rects>
              <tilted>0</tilted></feature>
            <threshold>-1.4846289996057749e-003</threshold>
            <left_val>6.5357691049575806e-001</left_val>
            <right_val>-1.3463379442691803e-001</right_val></_></_>
        <_>
          <!-- tree 20 -->
          <_>
            <!-- root node -->
            <feature>
              <rects>
                <_>
                  2 5 12 8 -1.</_>
                <_>
                  8 5 6 8 2.</_></rects>
              <tilted>0</tilted></feature>
            <threshold>-6.9297157227993011e-002</threshold>
            <left_val>-9.4629877805709839e-001</left_val>
            <right_val>1.4532020688056946e-001</right_val></_></_>
        <_>
          <!-- tree 21 -->
          <_>
            <!-- root node -->
            <feature>
              <rects>
                <_>
                  12 12 2 3 -1.</_>
                <_>
                  12 13 2 1 3.</_></rects>
              <tilted>0</tilted></feature>
            <threshold>6.4432518556714058e-003</threshold>
            <left_val>-1.1016429960727692e-001</left_val>
            <right_val>7.1895921230316162e-001</right_val></_></_>
        <_>
          <!-- tree 22 -->
          <_>
            <!-- root node -->
            <feature>
              <rects>
                <_>
                  10 12 2 3 -1.</_>
                <_>
                  10 13 2 1 3.</_></rects>
              <tilted>0</tilted></feature>
            <threshold>-1.8534279661253095e-003</threshold>
            <left_val>6.7458552122116089e-001</left_val>
            <right_val>-2.2356979548931122e-001</right_val></_></_></trees>
      <stage_threshold>-1.2497030496597290e+000</stage_threshold>
      <parent>11</parent>
      <next>-1</next></_>
    <_>
      <!-- stage 13 -->
      <trees>
        <_>
          <!-- tree 0 -->
          <_>
            <!-- root node -->
            <feature>
              <rects>
                <_>
                  4 2 12 13 -1.</_>
                <_>
                  8 2 4 13 3.</_></rects>
              <tilted>0</tilted></feature>
            <threshold>-3.5683020949363708e-002</threshold>
            <left_val>7.9808998107910156e-001</left_val>
            <right_val>-3.2792291045188904e-001</right_val></_></_>
        <_>
          <!-- tree 1 -->
          <_>
            <!-- root node -->
            <feature>
              <rects>
                <_>
                  22 2 2 17 -1.</_>
                <_>
                  22 2 1 17 2.</_></rects>
              <tilted>0</tilted></feature>
            <threshold>-2.5082670617848635e-003</threshold>
            <left_val>2.8824838995933533e-001</left_val>
            <right_val>-9.2566482722759247e-002</right_val></_></_>
        <_>
          <!-- tree 2 -->
          <_>
            <!-- root node -->
            <feature>
              <rects>
                <_>
                  0 2 2 17 -1.</_>
                <_>
                  1 2 1 17 2.</_></rects>
              <tilted>0</tilted></feature>
            <threshold>1.8867850303649902e-003</threshold>
            <left_val>3.0228009819984436e-001</left_val>
            <right_val>-6.2449991703033447e-001</right_val></_></_>
        <_>
          <!-- tree 3 -->
          <_>
            <!-- root node -->
            <feature>
              <rects>
                <_>
                  8 0 10 2 -1.</_>
                <_>
                  8 1 10 1 2.</_></rects>
              <tilted>0</tilted></feature>
            <threshold>5.8493260294198990e-003</threshold>
            <left_val>-2.9605451226234436e-001</left_val>
            <right_val>6.3237172365188599e-001</right_val></_></_>
        <_>
          <!-- tree 4 -->
          <_>
            <!-- root node -->
            <feature>
              <rects>
                <_>
                  8 22 2 2 -1.</_>
                <_>
                  8 22 1 1 2.</_>
                <_>
                  9 23 1 1 2.</_></rects>
              <tilted>0</tilted></feature>
            <threshold>1.4158889825921506e-004</threshold>
            <left_val>3.6822929978370667e-001</left_val>
            <right_val>-7.0066392421722412e-001</right_val></_></_>
        <_>
          <!-- tree 5 -->
          <_>
            <!-- root node -->
            <feature>
              <rects>
                <_>
                  14 1 8 2 -1.</_>
                <_>
                  18 1 4 1 2.</_>
                <_>
                  14 2 4 1 2.</_></rects>
              <tilted>0</tilted></feature>
            <threshold>3.4895730204880238e-003</threshold>
            <left_val>-2.1044790744781494e-001</left_val>
            <right_val>3.3014819025993347e-001</right_val></_></_>
        <_>
          <!-- tree 6 -->
          <_>
            <!-- root node -->
            <feature>
              <rects>
                <_>
                  2 23 2 1 -1.</_>
                <_>
                  3 23 1 1 2.</_></rects>
              <tilted>0</tilted></feature>
            <threshold>-1.4144389751891140e-005</threshold>
            <left_val>3.3905059099197388e-001</left_val>
            <right_val>-5.9194970130920410e-001</right_val></_></_>
        <_>
          <!-- tree 7 -->
          <_>
            <!-- root node -->
            <feature>
              <rects>
                <_>
                  10 11 14 6 -1.</_>
                <_>
                  17 11 7 3 2.</_>
                <_>
                  10 14 7 3 2.</_></rects>
              <tilted>0</tilted></feature>
            <threshold>2.3876670747995377e-002</threshold>
            <left_val>-2.7531999349594116e-001</left_val>
            <right_val>4.5763179659843445e-001</right_val></_></_>
        <_>
          <!-- tree 8 -->
          <_>
            <!-- root node -->
            <feature>
              <rects>
                <_>
                  2 0 8 4 -1.</_>
                <_>
                  2 0 4 2 2.</_>
                <_>
                  6 2 4 2 2.</_></rects>
              <tilted>0</tilted></feature>
            <threshold>1.9991190638393164e-003</threshold>
            <left_val>-3.2452690601348877e-001</left_val>
            <right_val>6.0539197921752930e-001</right_val></_></_>
        <_>
          <!-- tree 9 -->
          <_>
            <!-- root node -->
            <feature>
              <rects>
                <_>
                  20 7 4 6 -1.</_>
                <_>
                  20 9 4 2 3.</_></rects>
              <tilted>0</tilted></feature>
            <threshold>1.0785520076751709e-002</threshold>
            <left_val>5.8517571538686752e-002</left_val>
            <right_val>-4.7079661488533020e-001</right_val></_></_>
        <_>
          <!-- tree 10 -->
          <_>
            <!-- root node -->
            <feature>
              <rects>
                <_>
                  0 7 4 6 -1.</_>
                <_>
                  0 9 4 2 3.</_></rects>
              <tilted>0</tilted></feature>
            <threshold>-3.6173118860460818e-004</threshold>
            <left_val>-4.8113879561424255e-001</left_val>
            <right_val>5.8089709281921387e-001</right_val></_></_>
        <_>
          <!-- tree 11 -->
          <_>
            <!-- root node -->
            <feature>
              <rects>
                <_>
                  14 1 6 3 -1.</_>
                <_>
                  16 1 2 3 3.</_></rects>
              <tilted>0</tilted></feature>
            <threshold>-2.1285180002450943e-002</threshold>
            <left_val>-9.8555690050125122e-001</left_val>
            <right_val>-8.1661874428391457e-003</right_val></_></_>
        <_>
          <!-- tree 12 -->
          <_>
            <!-- root node -->
            <feature>
              <rects>
                <_>
                  2 0 18 2 -1.</_>
                <_>
                  11 0 9 2 2.</_></rects>
              <tilted>0</tilted></feature>
            <threshold>3.2559711486101151e-002</threshold>
            <left_val>2.0308759808540344e-001</left_val>
            <right_val>-9.5094001293182373e-001</right_val></_></_>
        <_>
          <!-- tree 13 -->
          <_>
            <!-- root node -->
            <feature>
              <rects>
                <_>
                  14 1 6 3 -1.</_>
                <_>
                  16 1 2 3 3.</_></rects>
              <tilted>0</tilted></feature>
            <threshold>4.9661658704280853e-003</threshold>
            <left_val>-1.4622020721435547e-001</left_val>
            <right_val>1.8160089850425720e-001</right_val></_></_>
        <_>
          <!-- tree 14 -->
          <_>
            <!-- root node -->
            <feature>
              <rects>
                <_>
                  4 1 6 3 -1.</_>
                <_>
                  6 1 2 3 3.</_></rects>
              <tilted>0</tilted></feature>
            <threshold>2.7094769757241011e-003</threshold>
            <left_val>-3.1411948800086975e-001</left_val>
            <right_val>6.5351611375808716e-001</right_val></_></_>
        <_>
          <!-- tree 15 -->
          <_>
            <!-- root node -->
            <feature>
              <rects>
                <_>
                  23 18 1 3 -1.</_>
                <_>
                  23 19 1 1 3.</_></rects>
              <tilted>0</tilted></feature>
            <threshold>1.3231089724285994e-005</threshold>
            <left_val>-1.6320030391216278e-001</left_val>
            <right_val>4.0990018844604492e-001</right_val></_></_>
        <_>
          <!-- tree 16 -->
          <_>
            <!-- root node -->
            <feature>
              <rects>
                <_>
                  0 18 1 3 -1.</_>
                <_>
                  0 19 1 1 3.</_></rects>
              <tilted>0</tilted></feature>
            <threshold>-4.8219269956462085e-004</threshold>
